#ifndef CONV1_H
#define CONV1_H
#include <libfixed/fixed.h>
#include <libdnn/mem.h>

__ro_hifram fixed conv1_w[16][1][5][5] = { F_LIT(0.0819663554430008), F_LIT(0.13045752048492432), F_LIT(0.16206009685993195), F_LIT(0.09913920611143112), F_LIT(-0.03703175112605095), F_LIT(-0.0835295096039772), F_LIT(0.11643622815608978), F_LIT(-0.039197612553834915), F_LIT(0.009137322194874287), F_LIT(-0.04763471335172653), F_LIT(-0.1585424393415451), F_LIT(0.03883365914225578), F_LIT(0.15554296970367432), F_LIT(0.20161353051662445), F_LIT(0.2800610065460205), F_LIT(-0.27169618010520935), F_LIT(-0.19501113891601562), F_LIT(-0.16145657002925873), F_LIT(0.012911657802760601), F_LIT(0.011409664526581764), F_LIT(-0.11152387410402298), F_LIT(-0.04663020372390747), F_LIT(-0.25438395142555237), F_LIT(-0.296265572309494), F_LIT(-0.11750655621290207), F_LIT(0.016457710415124893), F_LIT(-0.045480161905288696), F_LIT(-0.07472313195466995), F_LIT(-0.10581470280885696), F_LIT(0.02745385281741619), F_LIT(0.025480741634964943), F_LIT(0.057421404868364334), F_LIT(0.004280334338545799), F_LIT(-0.17494533956050873), F_LIT(-0.03267569839954376), F_LIT(-0.11135189235210419), F_LIT(0.1917707324028015), F_LIT(0.04542313888669014), F_LIT(-0.3348284661769867), F_LIT(-0.16496852040290833), F_LIT(-0.10907990485429764), F_LIT(0.14713133871555328), F_LIT(0.13996151089668274), F_LIT(-0.15233533084392548), F_LIT(0.08049437403678894), F_LIT(-0.039506301283836365), F_LIT(0.0931330993771553), F_LIT(0.28056570887565613), F_LIT(-0.07460515946149826), F_LIT(0.0005270313704386353), F_LIT(0.08633794635534286), F_LIT(0.1335248500108719), F_LIT(0.3134405016899109), F_LIT(0.09651771932840347), F_LIT(-0.20721280574798584), F_LIT(0.1065903753042221), F_LIT(0.22530516982078552), F_LIT(0.1734735071659088), F_LIT(-0.021319642663002014), F_LIT(-0.3446583151817322), F_LIT(0.11175526678562164), F_LIT(0.34860390424728394), F_LIT(0.07862956821918488), F_LIT(-0.2353573441505432), F_LIT(-0.3528011739253998), F_LIT(0.23448941111564636), F_LIT(0.04798923060297966), F_LIT(-0.09271018207073212), F_LIT(-0.27613571286201477), F_LIT(-0.1963607519865036), F_LIT(0.09526941925287247), F_LIT(-0.051718901842832565), F_LIT(-0.16570356488227844), F_LIT(-0.1960560530424118), F_LIT(-0.1179053857922554), F_LIT(-0.05841626971960068), F_LIT(-0.0032798375468701124), F_LIT(0.07302205264568329), F_LIT(-0.0726052075624466), F_LIT(-0.27107083797454834), F_LIT(0.15696552395820618), F_LIT(-0.0494665652513504), F_LIT(-0.028260406106710434), F_LIT(-0.2081371694803238), F_LIT(-0.15826965868473053), F_LIT(0.0782008171081543), F_LIT(0.033979739993810654), F_LIT(0.0748303011059761), F_LIT(0.05170876160264015), F_LIT(-0.22339940071105957), F_LIT(0.04614166542887688), F_LIT(0.1624414175748825), F_LIT(0.0890963077545166), F_LIT(0.1697714924812317), F_LIT(0.14938722550868988), F_LIT(-0.11479000747203827), F_LIT(-0.010910571552813053), F_LIT(0.043928924947977066), F_LIT(0.13566920161247253), F_LIT(0.09516291320323944), F_LIT(-0.030183712020516396), F_LIT(-0.04707130044698715), F_LIT(-0.30659186840057373), F_LIT(-0.05903167277574539), F_LIT(0.05594261363148689), F_LIT(-0.1701197624206543), F_LIT(-0.17284299433231354), F_LIT(-0.21496759355068207), F_LIT(0.00737386429682374), F_LIT(0.22841940820217133), F_LIT(-0.0814690813422203), F_LIT(-0.09843798726797104), F_LIT(-0.24383240938186646), F_LIT(0.04607594758272171), F_LIT(0.23437267541885376), F_LIT(-0.02666427008807659), F_LIT(-0.1893523782491684), F_LIT(-0.1576501578092575), F_LIT(0.10685883462429047), F_LIT(0.22175489366054535), F_LIT(-0.1468217968940735), F_LIT(-0.09782753139734268), F_LIT(-0.18001510202884674), F_LIT(0.049331262707710266), F_LIT(0.3270839750766754), F_LIT(0.10428638011217117), F_LIT(-0.10924511402845383), F_LIT(0.08950591832399368), F_LIT(0.23104986548423767), F_LIT(0.23366115987300873), F_LIT(-0.14101442694664001), F_LIT(0.15766821801662445), F_LIT(0.012444276362657547), F_LIT(0.2050161212682724), F_LIT(0.08921055495738983), F_LIT(0.17012770473957062), F_LIT(0.13976342976093292), F_LIT(-0.16909988224506378), F_LIT(-0.1574222445487976), F_LIT(0.01829538308084011), F_LIT(-0.05126837641000748), F_LIT(-0.07388053834438324), F_LIT(-0.30208349227905273), F_LIT(-0.12131007015705109), F_LIT(-0.06004219129681587), F_LIT(-0.07577010989189148), F_LIT(0.01926504261791706), F_LIT(-0.13554279506206512), F_LIT(-0.1328451931476593), F_LIT(0.06756127625703812), F_LIT(-0.26600611209869385), F_LIT(-0.31645920872688293), F_LIT(-0.3440760374069214), F_LIT(-0.3576336205005646), F_LIT(-0.1740674078464508), F_LIT(-0.19226987659931183), F_LIT(-0.22316546738147736), F_LIT(-0.040116604417562485), F_LIT(-0.09242948144674301), F_LIT(-0.03468731418251991), F_LIT(0.10126980394124985), F_LIT(0.18894612789154053), F_LIT(0.031495992094278336), F_LIT(0.13084091246128082), F_LIT(0.2620156407356262), F_LIT(0.09418031573295593), F_LIT(0.09803086519241333), F_LIT(0.20334282517433167), F_LIT(0.25919175148010254), F_LIT(0.07700657844543457), F_LIT(0.01373749878257513), F_LIT(-0.00927223265171051), F_LIT(0.07481246441602707), F_LIT(0.0016682303976267576), F_LIT(0.011333974078297615), F_LIT(-0.10417614132165909), F_LIT(0.06702232360839844), F_LIT(0.05311359837651253), F_LIT(0.06286809593439102), F_LIT(-0.08664404600858688), F_LIT(0.11289767175912857), F_LIT(0.17834773659706116), F_LIT(0.10867568850517273), F_LIT(0.10925767570734024), F_LIT(-0.008393244817852974), F_LIT(0.09658289700746536), F_LIT(0.009992687031626701), F_LIT(0.06374240666627884), F_LIT(0.11083175241947174), F_LIT(0.04288145899772644), F_LIT(0.17373578250408173), F_LIT(0.05158938467502594), F_LIT(-0.13410843908786774), F_LIT(-0.21899889409542084), F_LIT(-0.012101857922971249), F_LIT(-0.021595247089862823), F_LIT(-0.16654179990291595), F_LIT(-0.30011239647865295), F_LIT(-0.1268317848443985), F_LIT(-0.037172380834817886), F_LIT(0.0590265654027462), F_LIT(-0.16326384246349335), F_LIT(-0.3868781328201294), F_LIT(-0.2592507600784302), F_LIT(-0.24642756581306458), F_LIT(-0.0009056964190676808), F_LIT(0.0013512319419533014), F_LIT(-0.2171439528465271), F_LIT(-0.023832309991121292), F_LIT(0.15188318490982056), F_LIT(0.19381773471832275), F_LIT(0.3361372649669647), F_LIT(0.19819633662700653), F_LIT(0.04641691967844963), F_LIT(0.06757374107837677), F_LIT(0.0790930762887001), F_LIT(0.1675771325826645), F_LIT(0.2196420431137085), F_LIT(-0.09680559486150742), F_LIT(0.0006902750465087593), F_LIT(-0.14324359595775604), F_LIT(-0.1321447342634201), F_LIT(0.009046887047588825), F_LIT(0.004058342892676592), F_LIT(0.025305133312940598), F_LIT(-0.011417829431593418), F_LIT(0.06173413246870041), F_LIT(-0.06779038161039352), F_LIT(0.13670706748962402), F_LIT(-0.03115936927497387), F_LIT(0.049703821539878845), F_LIT(-0.10069257766008377), F_LIT(-0.04528793692588806), F_LIT(-0.0005293252761475742), F_LIT(0.0491722971200943), F_LIT(-0.10945750772953033), F_LIT(-0.25642091035842896), F_LIT(-0.1790938675403595), F_LIT(-0.06837529689073563), F_LIT(0.07641272246837616), F_LIT(-0.35184434056282043), F_LIT(-0.23354576528072357), F_LIT(-0.07211747765541077), F_LIT(0.2527468800544739), F_LIT(0.25097766518592834), F_LIT(-0.07694675028324127), F_LIT(0.0208333358168602), F_LIT(0.24999213218688965), F_LIT(0.17628014087677002), F_LIT(-0.034273646771907806), F_LIT(-0.22523485124111176), F_LIT(-0.21101181209087372), F_LIT(-0.25260111689567566), F_LIT(-0.13798978924751282), F_LIT(-0.03199011832475662), F_LIT(-0.32782769203186035), F_LIT(-0.4394344985485077), F_LIT(-0.4131498336791992), F_LIT(-0.36374878883361816), F_LIT(-0.30225643515586853), F_LIT(-0.08025994896888733), F_LIT(0.03208053857088089), F_LIT(-0.07334916293621063), F_LIT(-0.10896402597427368), F_LIT(-0.07539033889770508), F_LIT(0.21285656094551086), F_LIT(0.10834092646837234), F_LIT(0.14212976396083832), F_LIT(0.2346879094839096), F_LIT(0.0734713077545166), F_LIT(0.14572353661060333), F_LIT(0.10197098553180695), F_LIT(0.2747575640678406), F_LIT(0.302592396736145), F_LIT(0.23566694557666779), F_LIT(-0.16890718042850494), F_LIT(-0.20434172451496124), F_LIT(-0.09397643804550171), F_LIT(0.07000938802957535), F_LIT(0.08658353239297867), F_LIT(-0.28220751881599426), F_LIT(0.08465277403593063), F_LIT(0.05613080412149429), F_LIT(0.227007657289505), F_LIT(0.02348618395626545), F_LIT(-0.027426790446043015), F_LIT(0.20072659850120544), F_LIT(0.2915383279323578), F_LIT(0.10020304471254349), F_LIT(-0.269199401140213), F_LIT(0.1197558045387268), F_LIT(0.07107880711555481), F_LIT(0.026103509590029716), F_LIT(-0.23712658882141113), F_LIT(-0.05804763734340668), F_LIT(0.133758544921875), F_LIT(0.035692598670721054), F_LIT(-0.09896261990070343), F_LIT(-0.03597058728337288), F_LIT(-0.0360654853284359), F_LIT(0.14035570621490479), F_LIT(0.18995286524295807), F_LIT(0.13554270565509796), F_LIT(0.07849464565515518), F_LIT(-0.020682523027062416), F_LIT(0.1314544975757599), F_LIT(0.08879497647285461), F_LIT(0.12088271975517273), F_LIT(0.27709975838661194), F_LIT(0.01479267980903387), F_LIT(-0.12184042483568192), F_LIT(-0.10024471580982208), F_LIT(0.04281087964773178), F_LIT(0.17167064547538757), F_LIT(0.3068252205848694), F_LIT(-0.0904776006937027), F_LIT(-0.14976882934570312), F_LIT(-0.2563275098800659), F_LIT(-0.180899515748024), F_LIT(0.07731205970048904), F_LIT(-0.24939624965190887), F_LIT(-0.24288715422153473), F_LIT(-0.15584492683410645), F_LIT(-0.2169637233018875), F_LIT(-0.15670274198055267), F_LIT(0.01852736435830593), F_LIT(0.09558488428592682), F_LIT(0.05288727581501007), F_LIT(-0.12241937220096588), F_LIT(-0.1161751076579094), F_LIT(0.21868173778057098), F_LIT(-0.02362956292927265), F_LIT(-0.06894910335540771), F_LIT(-0.3588124215602875), F_LIT(-0.11801417917013168), F_LIT(0.18220418691635132), F_LIT(0.10427283495664597), F_LIT(-0.17219021916389465), F_LIT(-0.3618426024913788), F_LIT(-0.19473285973072052), F_LIT(0.201890230178833), F_LIT(0.27302485704421997), F_LIT(-0.03393775224685669), F_LIT(-0.14432017505168915), F_LIT(-0.05614860728383064), F_LIT(0.09133429080247879), F_LIT(0.2783573567867279), F_LIT(0.2396640181541443), F_LIT(-0.030834844335913658), F_LIT(-0.03980265557765961), F_LIT(0.02306198514997959), F_LIT(0.18225708603858948), F_LIT(-0.04785025119781494), F_LIT(0.028988242149353027), F_LIT(0.0048727174289524555), F_LIT(0.13432933390140533), F_LIT(0.10866059362888336), F_LIT(0.07714980840682983), F_LIT(0.055160731077194214), F_LIT(-0.05313378944993019), F_LIT(0.010326597839593887), F_LIT(0.1623605489730835), F_LIT(0.03303764387965202), F_LIT(0.06765476614236832), F_LIT(-0.15078136324882507), F_LIT(-0.08276135474443436), F_LIT(0.19990892708301544), F_LIT(0.17119713127613068), F_LIT(-0.06630156934261322), F_LIT(-0.010944831185042858), F_LIT(-0.0549001581966877), F_LIT(0.14621709287166595), F_LIT(0.1722050905227661), F_LIT(0.0726025179028511), F_LIT(0.0307817030698061), F_LIT(-0.10640385746955872), F_LIT(0.032687023282051086), F_LIT(0.22356660664081573), F_LIT(0.07272763550281525), F_LIT(0.25416725873947144), F_LIT(0.18034745752811432), F_LIT(0.2795712351799011), F_LIT(0.2030709981918335), F_LIT(0.30366250872612), F_LIT(0.05675120651721954), F_LIT(0.23227132856845856), F_LIT(0.2233859747648239), F_LIT(0.08706264942884445), F_LIT(0.07804226875305176), F_LIT(-0.08838032931089401), F_LIT(-0.12541349232196808), F_LIT(-0.2465495616197586), F_LIT(-0.17656683921813965), F_LIT(-0.2652806043624878), F_LIT(-0.25708749890327454), F_LIT(-0.21619994938373566), F_LIT(-0.32574957609176636), F_LIT(-0.4268808960914612), F_LIT(-0.2739049196243286), F_LIT(-0.0882442370057106) };

__ro_hifram fixed conv1_b[16] = { F_LIT(0.0033981394954025745), F_LIT(-0.023829909041523933), F_LIT(-0.027372533455491066), F_LIT(-0.0429980643093586), F_LIT(0.010681034065783024), F_LIT(-0.008847007527947426), F_LIT(-0.006885488983243704), F_LIT(-0.005704129580408335), F_LIT(-0.027045171707868576), F_LIT(-0.10100910067558289), F_LIT(0.07483650743961334), F_LIT(-0.12382654845714569), F_LIT(-0.0015783433336764574), F_LIT(-0.05540227144956589), F_LIT(-0.10789531469345093), F_LIT(0.022022146731615067) };

#endif